digraph Tree {
node [shape=box] ;
0 [label="X[5] <= 0.187\ngini = 0.394\nsamples = 349\nvalue = [0.269, 0.731]"] ;
1 [label="X[8] <= 0.041\ngini = 0.093\nsamples = 224\nvalue = [0.049, 0.951]"] ;
0 -> 1 [labeldistance=2.5, labelangle=45, headlabel="True"] ;
2 [label="gini = 0.039\nsamples = 201\nvalue = [0.02, 0.98]"] ;
1 -> 2 ;
3 [label="gini = 0.423\nsamples = 23\nvalue = [0.304, 0.696]"] ;
1 -> 3 ;
4 [label="X[10] <= 0.553\ngini = 0.446\nsamples = 125\nvalue = [0.664, 0.336]"] ;
0 -> 4 [labeldistance=2.5, labelangle=-45, headlabel="False"] ;
5 [label="gini = 0.382\nsamples = 105\nvalue = [0.743, 0.257]"] ;
4 -> 5 ;
6 [label="gini = 0.375\nsamples = 20\nvalue = [0.25, 0.75]"] ;
4 -> 6 ;
}